{
  "weights": [
    [
      [
        -0.3234004781213838,
        0.3432193040463657,
        0.19211220711620303,
        0.1453780891454634,
        0.24065774904153445,
        -0.28284660649533677,
        -0.7345457780410821,
        0.334913754710285,
        0.0569199227574282,
        -0.006794359931977643,
        -0.4442415469761309,
        0.42235512889438037,
        -0.03065899968453718,
        0.05284525046502863,
        -0.02799753807535457,
        -0.4295215092249432
      ],
      [
        -0.2772642106110394,
        0.16527295023017977,
        -0.015802183280750687,
        -0.06284054737911327,
        -0.01885004021163451,
        -0.09762826287054158,
        -0.519988863462802,
        -0.08234092545481647,
        0.21454581230295725,
        0.28620078161501494,
        -0.07827629700025784,
        0.009494925860217105,
        -0.07059301612001305,
        -0.10336724343030261,
        0.36590292616211156,
        -0.2112669573012174
      ],
      [
        -0.5218910730936818,
        0.30381315227151173,
        0.4773131475781838,
        -0.13138314046925578,
        0.5216844049032785,
        -0.20628866842984586,
        -0.03829288817535828,
        -0.08368808060320429,
        -0.28035137346420674,
        -0.10052279463117714,
        -0.03470551064511468,
        0.3173140495290336,
        -0.37678020950387187,
        0.240774671417054,
        -0.02126017134176151,
        0.23467320025686886
      ],
      [
        -0.09689001871651724,
        -0.31920258325270706,
        0.4812316470889668,
        0.2481455575508461,
        0.428763464964424,
        0.5098712773792893,
        -0.1420871789024187,
        0.2966585800948871,
        -0.3778754693680518,
        -0.28365493762134847,
        0.012049990291860761,
        -0.3983057897650072,
        -0.05006081049803232,
        -0.037822061734445626,
        0.15826202709965845,
        -0.2679959118802449
      ],
      [
        -0.19336306205742684,
        -0.1699952610912526,
        -0.3181706672827504,
        0.5311765942071203,
        0.22050140851133668,
        0.5875323286124415,
        0.23157540111481376,
        -0.28346097383679214,
        -0.6540049606126033,
        0.2521257179223283,
        0.5683822985808676,
        0.10480098669045737,
        0.2533465359903599,
        -0.17835010037928534,
        -0.10632919427746185,
        -0.4428502825142113
      ],
      [
        0.08920994855266232,
        -0.07238297999223756,
        -0.16445450209285414,
        -0.20040667581798066,
        0.19043177163007097,
        0.10573649198210838,
        0.22187435105740097,
        0.16128377697091398,
        -0.0004443369250600822,
        -0.04677181853996645,
        -0.242984255969651,
        -0.06802077606877062,
        0.1981472480760509,
        0.20143383795934142,
        -0.19004953546894038,
        -0.4577721040423105
      ],
      [
        0.17948339331086768,
        0.030108603597348876,
        -0.10017150839929037,
        0.23043331033414044,
        0.13995218098662257,
        0.5394050552996806,
        0.38108239772918534,
        0.3908876728610367,
        0.5686629985665971,
        0.15137264659395358,
        0.4842751316086611,
        0.3651017169610741,
        0.04896858816589511,
        0.23983289813278838,
        0.2646883163207414,
        -0.018143719052509506
      ],
      [
        -0.41038208837327694,
        0.6117208765335791,
        0.11299762393851459,
        -0.006762535014917696,
        0.9890804119707981,
        -0.3868346343776766,
        0.343305578429573,
        0.03461104704509386,
        -0.39156337648304357,
        0.6898131033809687,
        -0.17512646496635087,
        -0.38017450625172455,
        0.09444026567656318,
        0.07712378729254431,
        -0.08882637227608824,
        -0.6732527456616931
      ],
      [
        -0.45633432871698043,
        0.22140126992311598,
        -0.028033277216433325,
        -0.24777958479558554,
        0.9606899862057267,
        -0.15543141098601554,
        0.4272447549043058,
        -0.23492458384194317,
        -0.7021494093776354,
        0.4359234033908969,
        -0.04493047425593089,
        0.3364129676039726,
        0.6765092765346955,
        -0.09999450738009497,
        -0.13623440541620913,
        -0.6623888232162902
      ],
      [
        -0.6872389720854324,
        -0.20156198825166205,
        0.17013002125505008,
        -0.11518101223319262,
        0.9242577642080702,
        -0.31632342000553526,
        0.4760002406395532,
        -0.2962182252237181,
        -0.8280023986566554,
        0.288430979994047,
        0.5035142032028778,
        -0.09915099871370033,
        0.5251571210486652,
        0.37736905643361485,
        0.006979128063274079,
        -0.26913038840533005
      ],
      [
        -0.46413071545510104,
        0.3989962804886719,
        0.2521896293548099,
        0.05533014444750621,
        1.1196903248167334,
        0.07555600966428971,
        0.08353350107085783,
        -0.23132718842876518,
        -0.596932226217133,
        0.4797789351478361,
        0.15122885985682136,
        -0.40273934181606214,
        0.4760708392904697,
        0.09100281929620849,
        0.061308810011123475,
        -0.5477698000102059
      ],
      [
        -0.4241281321240597,
        0.07908197707848988,
        0.33146697187764723,
        -0.28311309690337455,
        1.0168865331554189,
        -0.4960091945339319,
        0.4958543856240019,
        0.3346360886768508,
        -0.9204160727565545,
        0.4031869835207587,
        -0.053179855516765094,
        -0.07944156375385676,
        0.37023248995202074,
        -0.14493811488674815,
        -0.19601208256445124,
        -0.6494489000076487
      ],
      [
        -0.30542903573503927,
        0.42527397117228927,
        -0.3331668264212975,
        -0.30856069427407384,
        0.5896516990847946,
        0.1385256518154959,
        0.532908736046872,
        0.22858963836418683,
        -0.5348015212280773,
        -0.041209494173670674,
        -0.4215785051722041,
        0.28016051677187914,
        0.7156454329141083,
        -0.31164414806170293,
        -0.25280917750920273,
        -0.7718210880700676
      ],
      [
        -0.8401786792428969,
        -0.27992672834159993,
        -0.05481684342424549,
        0.034069953226098675,
        1.4593339530201064,
        -0.25591016827377916,
        0.510354225848679,
        -0.31681068875212004,
        -0.9770904913419595,
        0.595490766335628,
        0.39429929293213634,
        0.25543661173382304,
        0.5768743748652002,
        0.43336054423047665,
        0.023850695348432267,
        -0.38856483404335684
      ]
    ],
    [
      [
        1.447664173003065
      ],
      [
        2.1982517508571613
      ],
      [
        2.899622395875857
      ],
      [
        2.1024442954351463
      ],
      [
        -2.4235445790459993
      ],
      [
        1.5974987719133469
      ],
      [
        1.903808226267256
      ],
      [
        3.045357555322437
      ],
      [
        1.189395315705645
      ],
      [
        2.2755093810365334
      ],
      [
        1.2223262886430797
      ],
      [
        2.9009340531394474
      ],
      [
        1.9254856021387436
      ],
      [
        1.9855246419447106
      ],
      [
        2.537790040274921
      ],
      [
        1.0050656865197258
      ]
    ]
  ],
  "biases": [
    [
      1.8895813995657968,
      2.585250908692767,
      3.182563093009888,
      2.3456596302426793,
      -2.811774560447554,
      3.456177530380085,
      2.913504265223812,
      2.810343558184832,
      1.916802155911654,
      2.849176176100072,
      2.5141939191970146,
      2.933911992023414,
      2.451627806221733,
      1.9819100794379934,
      2.1596454537263363,
      1.5541976319429764
    ],
    [
      3.3105967090887143
    ]
  ]
}