{
  "weights": [
    [
      [
        -0.10453992529393795,
        -2.3672048670083516e-101,
        -0.329953195840755,
        0.20383304186855045,
        0.5184400423597222,
        -0.41078618705854536,
        -0.8414067162661375,
        -0.5726222029674349,
        0.4654009579548921,
        0.434809441739885,
        0.7907017684319745,
        -0.3010170607901974,
        -0.013109500959584162,
        -0.9045754487430062,
        -1.054900130707799e-102,
        1.1522768266824894
      ],
      [
        -0.036714300504459285,
        1.3564905622391184e-99,
        0.6238004089654723,
        -0.3609593032619265,
        0.027086804811927094,
        0.13907757850473643,
        -1.113032590215246,
        -0.37204640991907245,
        -0.31063741389827415,
        -0.8603491460013493,
        0.677073835075846,
        0.8164824954475763,
        0.12814199523453995,
        -0.4243160581578563,
        4.315403870146291e-102,
        1.3840529108393638
      ],
      [
        0.32039084994144357,
        -8.911181175829272e-101,
        0.09444406012679611,
        0.6183532257098731,
        0.30502465393298617,
        0.0957345478613155,
        -0.7414652646660465,
        -0.46209064133760297,
        0.09613395155841771,
        -0.038551925780395,
        0.8020566323874868,
        0.11810326759347876,
        -0.7747169736898891,
        -0.7730916775980182,
        -1.045479714745869e-102,
        0.8488398723193897
      ],
      [
        -0.14323989855274485,
        -1.3592601449714989e-101,
        0.816370924631861,
        0.33049608028280947,
        -0.175197107318377,
        0.435670293876714,
        -0.7902941700381932,
        -0.09000711498831045,
        0.616528338049461,
        -0.7734983417971532,
        0.5007824409150059,
        0.09045296451007602,
        -0.5518406140380948,
        -0.4632621739692562,
        -3.5270012866435637e-103,
        1.1500261942954426
      ],
      [
        -0.05568421710213878,
        6.426404603821737e-100,
        -0.6881550290316683,
        -0.1439527839244058,
        0.029512780266864363,
        -0.02945783722311056,
        -1.007065616814333,
        -0.09962861973824089,
        0.1959908304338351,
        0.2918614051320819,
        0.7702975658230694,
        -0.26870562547611476,
        -0.2952791339012093,
        -0.43774348178753614,
        1.17844854725499e-102,
        0.7691388217869841
      ],
      [
        -0.17212793981945493,
        -3.0877257342856745e-100,
        -0.8235229805416281,
        0.18435338671173085,
        0.06384820343503754,
        0.35244509613116165,
        -0.5278971474099884,
        -0.07253704185075524,
        0.32719228324927063,
        -0.10000285703465547,
        0.4988119607921202,
        -0.12590802261008618,
        -0.3807314673602351,
        -0.4676106402759082,
        -1.3482918605227011e-102,
        0.8094030534722406
      ],
      [
        0.4293415662473489,
        2.142135472874181e-101,
        -0.341288456661617,
        0.34978419318968507,
        0.09972974555048326,
        0.1682576530418687,
        -1.4902126023023803,
        -0.10107476362068976,
        -0.19205116107675832,
        1.2494390141707485,
        0.3467835200451594,
        0.3415748596165195,
        -0.27118765082872803,
        -0.08894432453548357,
        6.064734611049723e-103,
        0.9179660195556969
      ],
      [
        0.5522337831902158,
        1.9606872777319954e-102,
        -0.5329814491251289,
        0.9741916157564041,
        0.07017846943009609,
        -0.20308205411682761,
        -1.0082839922751425,
        0.2130044415035777,
        0.8847209386102506,
        0.14986505062735156,
        0.9652060098756351,
        -0.19350114399636636,
        -1.0343550854412127,
        -1.2040630703002138,
        2.373095890730097e-103,
        0.17832896075604987
      ],
      [
        0.6539914144105082,
        -2.5911794622688305e-101,
        -0.6578802973834308,
        0.602040178287117,
        -0.05428848417957827,
        0.2532452830833274,
        -0.40128805550804236,
        -0.005097343714029302,
        0.4852731899919,
        -0.11336392046456661,
        0.9183469064610681,
        -0.15708010355805663,
        -0.7844420629487142,
        -0.7961569560031725,
        -1.055335734922081e-102,
        0.29116876324466023
      ],
      [
        0.7121608638985475,
        5.058519329190668e-102,
        -0.44662841415988913,
        0.7684004520521782,
        -0.4347696310511318,
        0.3112681387370647,
        1.1284575179558165,
        -0.10470621578706985,
        0.9544339107296492,
        0.4366795539457147,
        1.1001096013477532,
        -0.17322792608543136,
        -1.1277783763004519,
        -0.7779014098834558,
        7.707831486585965e-104,
        -0.30109693992138464
      ],
      [
        0.4932608657968855,
        -3.931595732822901e-102,
        -0.211956108945075,
        0.755016358325629,
        0.07775941993892586,
        0.2632285144201805,
        0.3241943524629001,
        0.27590576188400723,
        0.2527551001315625,
        0.3689410254861017,
        0.9963423820352474,
        -0.15533156854336,
        -1.0209849481674433,
        -0.7592310518360692,
        -2.1994853708688972e-104,
        -0.369575845892958
      ],
      [
        0.7106027116950306,
        -6.920155618377909e-103,
        -0.5369371457546324,
        0.8009014719699542,
        -0.014698223130781762,
        0.32636757427870944,
        -0.12738737785298088,
        -0.14536875568669733,
        0.27034855145726455,
        0.4927078779747284,
        1.223681576924342,
        -0.08586731192696978,
        -1.0496830892193656,
        -1.1344893868406158,
        -1.562130354560982e-103,
        -0.04609221688637467
      ],
      [
        0.725797894417765,
        3.14617198845782e-103,
        -1.4434400200323032,
        1.0356795091840494,
        -0.1850758277655128,
        0.10891906449346361,
        0.6899746989184575,
        0.4989521142294792,
        0.2918702233166129,
        0.44239291366900596,
        1.1082839709301542,
        -0.2469576680999222,
        -0.9613867802635354,
        -1.0118626394394168,
        6.111084441579103e-104,
        0.1292396790481832
      ],
      [
        0.3938374469634751,
        2.1840131757559258e-102,
        -0.5499430769920429,
        1.7711025201243897,
        -0.26864496072941285,
        0.38856940643358173,
        -0.4590685761448486,
        0.6361676548191654,
        0.35822494901323604,
        0.8375427414486866,
        0.7417356359253475,
        0.1215736659212409,
        -1.1399592183344556,
        -1.08187236441139,
        -5.66054983743462e-104,
        -0.4395205948964841
      ]
    ],
    [
      [
        2.6332506069796366
      ],
      [
        -5.832811476121777e-102
      ],
      [
        0.932888600957162
      ],
      [
        -2.037768345448669
      ],
      [
        3.0734164667950523
      ],
      [
        2.9603500277435626
      ],
      [
        -2.194780635287048
      ],
      [
        2.1249050520706905
      ],
      [
        2.4007006127593424
      ],
      [
        2.7754882167671613
      ],
      [
        -2.1678833437320355
      ],
      [
        1.597482779833462
      ],
      [
        1.5751951817871972
      ],
      [
        1.7154909329446357
      ],
      [
        -2.2344574835654747e-101
      ],
      [
        1.7748230492254562
      ]
    ]
  ],
  "biases": [
    [
      3.4918376519394125,
      -0.6653223443012782,
      2.5939431364869545,
      -2.8228846963378005,
      3.7040539777533112,
      3.7186696072518624,
      -3.5030238407635057,
      3.170579204347502,
      3.090692124997347,
      3.796760618458548,
      -2.892730399865794,
      2.91603020755853,
      2.986361394780392,
      2.618543294281593,
      -0.07722150451240521,
      3.0665948902912445
    ],
    [
      3.614235942989372
    ]
  ]
}